FANN_FLO_2.1
num_layers=3
learning_rate=0.700000
connection_rate=1.000000
network_type=0
learning_momentum=0.000000
training_algorithm=2
train_error_function=1
train_stop_function=0
cascade_output_change_fraction=0.010000
quickprop_decay=-0.000100
quickprop_mu=1.750000
rprop_increase_factor=1.200000
rprop_decrease_factor=0.500000
rprop_delta_min=0.000000
rprop_delta_max=50.000000
rprop_delta_zero=0.100000
cascade_output_stagnation_epochs=12
cascade_candidate_change_fraction=0.010000
cascade_candidate_stagnation_epochs=12
cascade_max_out_epochs=150
cascade_max_cand_epochs=150
cascade_num_candidate_groups=2
bit_fail_limit=3.49999994039535522461e-01
cascade_candidate_limit=1.00000000000000000000e+03
cascade_weight_multiplier=4.00000005960464477539e-01
cascade_activation_functions_count=10
cascade_activation_functions=3 5 7 8 10 11 14 15 16 17 
cascade_activation_steepnesses_count=4
cascade_activation_steepnesses=2.50000000000000000000e-01 5.00000000000000000000e-01 7.50000000000000000000e-01 1.00000000000000000000e+00 
layer_sizes=5 16 4 
scale_included=0
neurons (num_inputs, activation_function, activation_steepness)=(0, 0, 0.00000000000000000000e+00) (0, 0, 0.00000000000000000000e+00) (0, 0, 0.00000000000000000000e+00) (0, 0, 0.00000000000000000000e+00) (0, 0, 0.00000000000000000000e+00) (5, 5, 5.00000000000000000000e-01) (5, 5, 5.00000000000000000000e-01) (5, 5, 5.00000000000000000000e-01) (5, 5, 5.00000000000000000000e-01) (5, 5, 5.00000000000000000000e-01) (5, 5, 5.00000000000000000000e-01) (5, 5, 5.00000000000000000000e-01) (5, 5, 5.00000000000000000000e-01) (5, 5, 5.00000000000000000000e-01) (5, 5, 5.00000000000000000000e-01) (5, 5, 5.00000000000000000000e-01) (5, 5, 5.00000000000000000000e-01) (5, 5, 5.00000000000000000000e-01) (5, 5, 5.00000000000000000000e-01) (5, 5, 5.00000000000000000000e-01) (0, 5, 0.00000000000000000000e+00) (16, 5, 5.00000000000000000000e-01) (16, 5, 5.00000000000000000000e-01) (16, 5, 5.00000000000000000000e-01) (0, 5, 0.00000000000000000000e+00) 
connections (connected_to_neuron, weight)=(0, 4.23327594995498657227e-01) (1, 1.99659967422485351562e+00) (2, -6.17418646812438964844e-01) (3, -1.21354646980762481689e-01) (4, -5.21828494966030120850e-02) (0, -2.74639636278152465820e-01) (1, -6.19865477085113525391e-01) (2, -2.85283237695693969727e-01) (3, 1.41957962512969970703e+00) (4, 9.80979263782501220703e-01) (0, -1.49775512695312500000e+03) (1, -1.49996325683593750000e+03) (2, -1.49380712890625000000e+03) (3, -1.49996313476562500000e+03) (4, -4.76142028808593750000e+02) (0, -7.72122800350189208984e-01) (1, -5.03660726547241210938e+00) (2, -5.59184491634368896484e-01) (3, -4.43888759613037109375e+00) (4, -8.94609642028808593750e+00) (0, 3.12673971056938171387e-02) (1, -9.41120684146881103516e-01) (2, 5.64075469970703125000e-01) (3, 6.10323488712310791016e-01) (4, -7.95612454414367675781e-01) (0, -1.66851103305816650391e-01) (1, -5.05293011665344238281e-01) (2, -1.84363648295402526855e-01) (3, 1.34372770786285400391e+00) (4, -3.09576153755187988281e-01) (0, 4.57164824008941650391e-01) (1, 1.06097288131713867188e+01) (2, -1.40391931533813476562e+01) (3, 1.97566719055175781250e+01) (4, 9.95293521881103515625e+00) (0, 9.66767609119415283203e-01) (1, 1.49203801155090332031e+00) (2, -2.12753415107727050781e+00) (3, -4.46958494186401367188e+00) (4, 9.18638765811920166016e-01) (0, -9.12859320640563964844e-01) (1, 3.03546643257141113281e+00) (2, -2.43745103478431701660e-01) (3, -2.15097218751907348633e-02) (4, -5.70002436637878417969e-01) (0, 1.04417169094085693359e+00) (1, -4.81263339519500732422e-01) (2, -7.08116292953491210938e-01) (3, -6.94755375385284423828e-01) (4, 2.75816526263952255249e-02) (0, 5.59371337890625000000e+02) (1, -4.77676849365234375000e+02) (2, -1.44301037597656250000e+03) (3, 1.40541101074218750000e+03) (4, 2.53543415069580078125e+01) (0, -4.98061299324035644531e-01) (1, -8.69934380054473876953e-01) (2, 1.37443089485168457031e+00) (3, 4.39154505729675292969e-01) (4, -5.77072679996490478516e-01) (0, -1.36203318834304809570e-01) (1, 1.95338654518127441406e+00) (2, -2.49330177903175354004e-01) (3, -8.86387843638658523560e-03) (4, -2.01025176048278808594e+00) (0, -7.00129508972167968750e+00) (1, -2.13106181472539901733e-02) (2, 1.10542249679565429688e+01) (3, 1.65082061290740966797e+00) (4, -2.56927299499511718750e+01) (0, 3.44024181365966796875e-01) (1, 1.17156922817230224609e+00) (2, 2.80057013034820556641e-01) (3, -4.13026523590087890625e+00) (4, 1.26471686363220214844e+00) (5, 1.50000000000000000000e+03) (6, 1.50000000000000000000e+03) (7, 1.50000000000000000000e+03) (8, 1.50000000000000000000e+03) (9, 1.45000000000000000000e+03) (10, 1.50000000000000000000e+03) (11, 1.50000000000000000000e+03) (12, 1.50000000000000000000e+03) (13, 1.50000000000000000000e+03) (14, 1.50000000000000000000e+03) (15, 1.50000000000000000000e+03) (16, 1.30853344726562500000e+03) (17, 1.50000000000000000000e+03) (18, 1.50000000000000000000e+03) (19, 1.50000000000000000000e+03) (20, 1.50000000000000000000e+03) (5, 2.77345776557922363281e+00) (6, 8.65223765373229980469e-01) (7, 2.03022623062133789062e+00) (8, 1.57416498661041259766e+00) (9, -1.47425127029418945312e+01) (10, 1.09243318438529968262e-02) (11, 7.98377418518066406250e+00) (12, -1.94536495208740234375e+01) (13, -1.81051311492919921875e+01) (14, -1.77109069824218750000e+01) (15, 2.19580912590026855469e+00) (16, -1.48061962127685546875e+01) (17, -5.37418985366821289062e+00) (18, 5.10284519195556640625e+00) (19, 1.83398838043212890625e+01) (20, 2.49271130561828613281e+00) (5, -3.03213223814964294434e-02) (6, 4.24561738967895507812e+00) (7, 4.55991744995117187500e+00) (8, 4.55824613571166992188e+00) (9, 1.93108901977539062500e+01) (10, 5.28743171691894531250e+00) (11, -8.40199375152587890625e+00) (12, 5.11877679824829101562e+00) (13, 2.10144290924072265625e+01) (14, 2.36734142303466796875e+01) (15, 4.11372232437133789062e+00) (16, 2.48262977600097656250e+01) (17, 1.30738925933837890625e+01) (18, 4.07228088378906250000e+00) (19, -1.68657341003417968750e+01) (20, 6.26017972826957702637e-02) 
